4.318420911207795 2.7228024154901505 4.0817632637917995 -5.459964029490948 -2.4559413520619273 -1.9019407257437706 -2.348937544040382 -1.7608350217342377 4.07628408819437 0.6186497658491135 -6.035525080398656 -0.5730077065527439 4.33513567969203 2.569049060344696 -2.674180045723915 -2.022298112511635 -7.668211026117206 3.6687850430607796 3.5626910366117954 6.484997384250164 6.89597138017416 1.6826486960053444 0.39252208918333054 -10.989286124706268 10.453957751393318 -0.7817952707409859 0.25497763603925705 -3.8567249104380608 -0.4067136411322281 4.3167068948969245
1.3619311014190316 -3.5424652844667435 1.2139190137386322 -0.8882386300247163 -11.411805801093578 -3.019257962703705 -6.60529515799135 -4.551943162921816 3.289668805897236 -9.539843764156103 9.584926953539252 -0.40747943706810474 -6.234311394393444 9.386344868689775 5.053309269249439 0.7125116167590022 3.6185107212513685 8.650015898048878 0.3001148998737335 8.33327611349523 0.6214571949094534 -2.0795289874076843 -7.096410561352968 6.539094758220017 6.773603640496731 0.7021510004997253 9.543415566906333 6.7666130140423775 4.101286888122559 -4.738718215376139
-2.391908820718527 14.222178898751736 3.8584588142111897 0.3455386534333229 7.888495657593012 6.4939028499647975 -2.668621538206935 -1.160930348560214 -3.491470977663994 -1.7817436032928526 4.938489452004433 1.5589542268280638 -1.4474696796387434 7.183508142828941 -1.8610804863274097 -0.7699497081339359 0.9839394802693278 7.588532101362944 -3.0144352354109287 -9.624070941004902 -6.128920294344425 -1.5981638878583908 3.593115024268627 9.987585600465536 -5.5703265611082315 -2.9859180101193488 -6.66629103757441 6.265602111816406 -3.48069436987862 -9.49834742769599
10.542365115135908 2.3717388552613556 3.0727421641349792 5.837343789637089 -3.654620546847582 5.105406884104013 -7.175938785076141 -3.3089644741266966 -2.8482119301334023 -2.2760423831641674 -7.735786437988281 -0.6954020857810974 3.631797776557505 1.5687160529196262 -2.720476754475385 -1.3143007531762123 -1.6846993612125516 1.9618653506040573 12.693409130908549 9.472950138151646 -5.270027048885822 -5.829233963042498 -0.6460802415385842 8.177796546369791 3.417283069342375 -6.173881910741329 -2.9930835217237473 2.3108198195695877 -1.0723674185574055 -1.4719681181013584
-5.034440580289811 -11.492173831909895 6.352328449487686 -3.1693972274661064 -2.380519289523363 -3.5443421192467213 -1.2277385611087084 4.614684844389558 -2.2630851520225406 5.763142290525138 -4.305903274565935 0.15081613510847092 1.0972845628857613 -4.1562474286183715 3.2767271604388952 1.7381846979260445 -1.9957578480243683 0.6406411919742823 -6.724403686821461 4.313047342002392 -4.586394093930721 7.887073388323188 -0.6416557729244232 0.2347608022391796 2.497982787899673 3.2938262373209 -9.458094703964889 2.625145399942994 -1.8242764747701585 3.1019997484982014
-3.11556840070989 1.5647988989949226 4.269900791347027 9.188680604100227 -5.059952234849334 -8.39036200940609 -1.155090904328972 -1.6513360925018787 8.292225673794746 3.5567365176975727 0.8169944565743208 3.051015265285969 -6.0138431042432785 3.8942451998591423 4.897864467231557 5.427882451564074 -4.162249386310577 0.21839651465415955 0.6663765721023083 0.9302850570529699 -2.231010928750038 3.982953844591975 -3.456707514822483 -5.05406629992649 11.273459397256374 -9.058718979358673 13.123334095114842 7.115327155217528 -0.005490496754646301 -2.157647915184498
0.3862253241240978 4.23386287689209 -0.5872684447094798 -2.927969291806221 1.8358807284384966 1.589294333010912 -0.4877932667732239 -4.790405407547951 2.708899446297437 -11.536117495968938 6.653063829988241 -6.386615499854088 -9.811107575893402 7.457052208483219 -4.922241743654013 -3.845521182520315 -12.023922533728182 1.4281618371605873 2.5411205096170306 -3.3298287838697433 8.292460394091904 3.810953017324209 -4.629538729786873 4.984541781246662 -2.6749221957288682 2.030883450061083 -3.9580593705177307 8.643329955637455 3.983548954129219 4.192204903811216
-3.3894995697773993 8.2904167547822 -5.564864048734307 -5.587231568992138 -3.8728292090818286 1.107000321149826 2.5181329771876335 -2.349700577557087 6.712742734700441 6.513457718770951 -1.391814824193716 -4.156314204679802 11.642929632216692 -0.796643752604723 1.5817432492040098 -6.165492913685739 -5.217671176418662 -2.2021692618727684 2.7705466523766518 4.395935555920005 2.47507044672966 -0.9850698681548238 5.84992310591042 3.591323744505644 3.774243433959782 -3.99321530200541 0.8086672946810722 -8.40083022415638 4.589058686047792 9.789949893951416
0.41869209706783295 8.044642273336649 1.8999496921896935 -3.8665248081088066 3.1798649267293513 -0.8895573187619448 -2.583538644015789 -2.8152450062334538 -6.5941536873579025 5.69438798725605 0.8630510158836842 8.87921380624175 2.0419638380408287 4.334396658465266 -9.274001482874155 6.789879187941551 -1.969823018182069 6.318399537354708 4.403772119432688 15.085076473653316 -5.784722784534097 -4.515253506600857 1.462285339832306 0.8939640861935914 0.9647766053676605 -10.94302960112691 7.970925871282816 1.403247870504856 -6.534069932997227 1.9865706041455269
-8.902084555942565 -4.393959853798151 1.8346222508698702 -5.509568430483341 -3.176425039768219 6.159975826740265 -10.090673953294754 0.08896997896954417 -7.389076806604862 -6.38660688418895 0.3649199455976486 -6.467690024524927 -2.2745763640850782 7.358889728784561 -0.44814859330654144 5.022448692470789 2.560016080737114 1.5487238317728043 1.2208821717649698 0.592672124505043 -8.180807575583458 4.265917100012302 -3.7667692750692368 6.635735125280917 1.635204415768385 1.467868796782568 1.6446502842009068 6.343401189893484 -3.8684361148625612 -5.7839931501075625
14.041788898408413 3.2359547356609255 -4.062171807512641 3.1980517730116844 -0.10758734308183193 -2.263849198818207 -8.739428166300058 4.849805153906345 4.111813902854919 -0.16580119356513023 4.542612638324499 10.985845491290092 -8.161285286769271 -8.41221549292095 -1.3278900505974889 2.327414132654667 -5.882875822484493 -5.862734407186508 -0.6368759162724018 0.1907011615112424 -4.289172621443868 -5.558983806986362 1.60583530459553 -2.7853656969964504 -3.3353787437081337 8.829814359545708 0.5795609231572598 4.138836672529578 -2.7894403487443924 -2.7620546966791153
-3.5949899251572788 -1.846952865831554 -3.995400187559426 -3.878465650603175 0.9717087876051664 -8.055885940790176 8.608599819242954 6.096457788720727 -1.0237414166331291 -6.794056573882699 3.9172541704028845 6.710190900135785 3.416765925474465 -11.65235310047865 -9.353042218834162 0.9316244013607502 -4.903206571936607 1.9314564615488052 -2.9145262613892555 -1.9720240843016654 6.108907405287027 -10.58369117602706 -2.389399342238903 -8.484496094286442 5.265552364289761 -2.060163699090481 -3.0717467665672302 -4.194916604086757 0.20878401957452297 -0.7360506728291512
-0.35350979678332806 -0.48978109285235405 6.8342033214867115 10.38907527923584 4.630421742796898 -1.0948361419141293 -0.9027995355427265 -2.9075129330158234 12.148881610482931 -0.8558056503534317 3.4786546821705997 -4.1442936196690425 -1.4485812913626432 -6.728470355272293 -1.28841818170622 2.076907679438591 0.11405977606773376 3.956999287009239 4.942306659228052 3.740379609167576 0.4824959374964237 3.3614573292434216 2.055444523692131 4.583445705473423 -3.3285986557602882 -2.8092258870601654 6.047784641385078 3.3589151203632355 6.173362649977207 -2.23471374087967
-0.19626445975154638 -0.48135058768093586 -3.9874203857034445 -5.849171604961157 -2.957442918792367 -1.236830472946167 0.5407246798276901 -5.053049260750413 -3.8669027853757143 2.6554095707833767 0.5038620084524155 9.288726560538635 5.401689702644944 3.0722999493591487 8.919509295374155 2.54023421369493 2.061061393469572 6.8290743343532085 1.2996767535805702 0.2664382332004607 2.0924506783485413 -0.760264023207128 -2.237996231764555 3.4253293238580227 -4.449230659753084 10.05720067024231 -6.769783802330494 -2.4270006008446217 5.133978396654129 -5.112960211932659
-3.295280270278454 5.508004350587726 -5.872047504410148 7.627408877015114 -0.8274086378514767 -5.135245069861412 2.8871918646618724 6.931575788185 -5.88442637771368 -2.899715930223465 -5.829048175364733 9.348832629621029 3.2493396350182593 -3.040213651023805 3.614569589495659 1.2334257364273071 0.4067775756120682 0.9004374975338578 -6.617898563388735 9.50050025805831 2.3015069104731083 11.460776314139366 14.26953800022602 -2.3663661489263177 -0.5261002690531313 3.6946882132906467 0.8201093599200249 4.07684881798923 12.58525773556903 -5.989202003926039
0.7816516049206257 -2.852749075740576 -4.412948399782181 -7.830501329153776 2.666950876824558 -8.986149027943611 -4.528598592616618 -9.224925578804687 9.88662039861083 2.4199673384428024 -2.739917683247768 1.5802574791014194 3.0482006147503853 -5.479762330651283 -1.471740696579218 1.194562326418236 -0.7490686774253845 -4.455432638525963 6.314395431429148 2.364740200340748 -10.088434156030416 7.097327932715416 -4.495108053088188 -5.267505373107269 -6.024598892778158 -3.1154484301805496 3.529207030311227 -7.816869657486677 1.8872353732585907 2.523244898766279
8.139980994164944 3.144120452925563 2.889160055667162 3.11225096299313 1.1437958991155028 -6.7042002603411674 -14.255715385079384 0.9790444704703987 4.097170043736696 -1.6446279967203736 1.1211292708758265 5.1919198939576745 4.558873809874058 -8.422668367624283 1.6632713279686868 0.05481484532356262 5.004255175590515 -0.4188290685415268 -5.696532316505909 -6.623593490570784 -0.22123777493834496 -8.6918825507164 1.5599586740136147 9.173746727406979 3.5696861296892166 5.901468097232282 10.534671550616622 7.564128205180168 -5.116634709760547 6.992785632610321
-9.127708848565817 2.298856785520911 0.9846272859722376 -6.6847137454897165 -5.922547772526741 17.955199944903143 3.8555009104311466 0.009972847998142242 -2.1955577339977026 -2.2995330212870613 -4.19235228234902 -0.7763536646962166 4.756414849311113 10.845883649773896 -9.667214889079332 5.085925593972206 -6.510110907256603 1.545346493832767 5.215588355436921 8.566075675189495 3.2837864942848682 9.089849688112736 5.658724814653397 1.4400459229946136 4.6100236140191555 9.246760121313855 7.824074000120163 0.07653380651026964 2.9783617854118347 1.5512817278504372
-0.049023259431123734 0.255225270986557 7.5796079486608505 6.519728188402951 2.575445421040058 11.639373604208231 -2.123490445315838 7.476559542119503 3.030022345483303 -4.772170260548592 -4.673505525570363 8.92171460017562 4.898980360478163 -9.118615627101008 -1.8852516636252403 -0.16338875307701528 2.84545792080462 0.8883798392489552 1.3640154376626015 -2.2290184143930674 1.1984159238636494 2.780617620795965 -4.207621922949329 0.8476162906736135 -6.685050942003727 -1.1500027179718018 -7.266652092337608 1.2721891440451145 4.261719599366188 -0.028364092111587524
0.029304087162017822 8.227521768771112 2.324730457738042 -4.471861430967692 2.696372926235199 -10.342019908130169 -7.219495479017496 1.1807989925146103 0.09501326456665993 8.55875538289547 4.17895220592618 2.202423369511962 -13.121758665889502 -6.614507356891409 6.431230764836073 -6.282631549984217 5.236415710300207 16.237845480442047 -3.3656790051609278 -8.4435208668001 -5.518722463399172 3.9115752703510225 -1.2370150834321976 13.46648527868092 -12.479518499225378 -1.103911713580601 -0.6725008115172386 -3.6027766838669777 -0.8475293372757733 6.243470959365368
-4.991888835909776 8.540503472089767 -2.674652760848403 -10.669697798788548 8.30955309420824 -13.390495162457228 -4.146428477950394 -2.263060424476862 5.360575184226036 3.1836751997470856 10.006279617547989 -1.3118364347610623 -6.0914559699594975 -1.1024349369108677 4.184697223827243 -2.785749815404415 -3.403553075157106 -5.957598893088289 1.9212905187159777 1.122053916566074 5.126126477494836 1.4590198351070285 -11.615115694701672 -7.734204268082976 -4.060746998293325 -6.899398557841778 12.706810593605042 -4.84931500069797 0.7743817903101444 0.027137744706124067
-2.4210833869874477 0.4908054955303669 -1.7998058423399925 10.097196977585554 0.5779671873897314 -6.559523810166866 1.410180076956749 -0.22470279037952423 -7.218095056712627 4.774805042427033 -2.6836169958114624 -5.428228314500302 -5.853297262452543 4.415238805115223 -2.6293926276266575 -1.7309228461235762 -5.195984547957778 10.504827059805393 0.28620626777410507 2.845727425068617 0.13247790187597275 0.6859078258275986 -6.545274120755494 15.918737094849348 1.8981501832604408 0.7637059479020536 8.143671214580536 -12.071846805512905 8.114255614578724 7.220023130998015
-8.622605331242085 -3.0459075197577477 -6.7170084454119205 -3.5759283588267863 -2.608627088367939 4.919444981962442 8.918236494064331 -4.940607472090051 -1.2636455036699772 -1.131140645535197 0.06758167641237378 -1.1333093829452991 0.32887923408998176 0.546586238546297 -1.430286530405283 5.180481716990471 0.9088002033531666 -3.9209529608488083 3.5601389035582542 6.876916244626045 6.781848154962063 2.196835657581687 -2.09634341718629 0.614245749078691 8.876762986183167 2.7688593678176403 -5.275828309357166 -10.135316528379917 -8.021626939764246 3.7018399834632874
4.2732845060527325 8.271886184811592 11.566370096057653 -1.7890295088291168 -3.617265358567238 14.570318946614861 0.550472728908062 6.912404330447316 2.9790479950606823 -0.1573481746017933 7.455049354583025 3.062313459813595 2.4714501686394215 7.0959335789084435 -1.3494246490299702 -2.825023602694273 12.848624344915152 5.58870568824932 5.603724359534681 -1.5207536462694407 -0.48433443531394005 -1.28578332811594 1.7772018145769835 1.7789662033319473 3.2836922742426395 5.441643253900111 5.12955258321017 9.274214036762714 12.969124384224415 -4.194307627156377
7.879245147109032 2.143347593024373 2.233301021158695 -5.447503177449107 -2.400531274266541 -14.482048399746418 -14.000094391405582 -5.888883743435144 -0.5539730899035931 2.72359124943614 3.5537943840026855 -2.659878958016634 5.700695641338825 5.1376893892884254 -2.728835143148899 1.1991512700915337 2.43729654699564 -0.7981362268328667 -8.613876730203629 -0.773866054136306 0.2234245454892516 -3.577654610387981 -4.2882962971925735 -2.080476690083742 1.8961118031293154 12.009934074245393 7.653745653573424 3.652055509388447 -0.8798941671848297 7.458208724856377
-1.936850842088461 7.052269112318754 1.724300540983677 1.3323383927345276 -0.3950468823313713 -11.726913779973984 2.7916456386446953 -1.6529402802698314 -3.295900695025921 0.26545459032058716 -3.3564568534493446 8.89041868597269 -1.1965660378336906 -2.2789990715682507 0.3420743364840746 -2.5640447102487087 -2.4352746788645163 2.092603335157037 5.603838087525219 1.160894487053156 4.43481039442122 -7.460974380373955 -2.6200790777802467 -7.523935021832585 -4.059192441403866 -1.8303240574896336 4.911003701388836 -7.893688251264393 -8.426544671296142 2.3591108173131943
-0.019260233268141747 5.267678061500192 -1.6975505948066711 0.9811031753197312 6.72506994754076 1.3491111500188708 0.9195609013549984 -8.191431855782866 5.38532805070281 6.6338401064276695 0.05286197364330292 -3.117017298936844 -6.68239014595747 1.2437983839772642 -3.4292900275904685 -0.19384620152413845 3.578431997448206 -0.0020982809364795685 -0.7283588480204344 1.7532122433185577 -0.35597389936447144 1.8496409133076668 -3.7411961117759347 5.079583402723074 2.525678444362711 1.6567488722503185 6.166406720876694 -3.4595472514629364 4.664843184640631 10.178915560245514
2.4034446477890015 -3.1616072077304125 1.0766850728541613 4.213524419814348 1.715008926577866 4.807316718855873 0.06077297031879425 -0.7875051060691476 1.7234640466049314 -12.94857579888776 10.297468911856413 -3.666455023922026 -1.362674094736576 -10.134791553020477 3.132475081831217 -3.961130854440853 2.2009061155840755 2.1915689585730433 5.677672103047371 9.104545660316944 7.990189749747515 9.395080907270312 4.943470228463411 10.623633854091167 9.270736321806908 -3.8923697099089622 -4.389103750931099 10.070293199270964 -5.9141172878444195 -0.9548908919095993
0.18796823546290398 5.514301426708698 2.402833379805088 -4.364795163273811 -3.7280396968126297 6.599985308945179 -0.8134150700643659 0.7154912324622273 9.355217399075627 3.8233129158616066 2.33685817848891 5.477151565253735 1.7604538593441248 1.269893788266927 3.737779795192182 3.0965461134910583 7.720919989049435 8.11151752434671 1.7636567279696465 -1.7234090752899647 -4.517606070730835 -4.731350697577 2.650738775730133 4.282118273898959 -2.968192484229803 -14.150821432471275 8.21566777676344 6.997596198692918 -4.976511272601783 -2.802699338644743
-4.5783220222219825 4.025159414857626 -8.40838376013562 3.5231910906732082 -6.140745001575851 -9.937554128468037 -0.6306725405156612 1.7153288088738918 -1.697086252272129 -1.326908204704523 2.705438546836376 1.028488837648183 -1.8826785050332546 -4.905009418725967 -4.982332333922386 -8.020643211901188 3.648530174046755 0.3511260151863098 -5.6550825126469135 -4.556850492022932 10.867369130253792 3.6542862735223025 -3.369183484464884 1.3025849685072899 4.393951685749926 3.785852864384651 -1.7153237909078598 -4.4019517078995705 -0.996986523270607 1.6516790483146906
-12.215167976915836 1.3220531567931175 -5.43247988820076 0.2935756966471672 -0.2706009066896513 9.538312513381243 0.6460124207660556 11.109720317646861 5.675500720739365 -3.401879958808422 9.427899047732353 8.04813170619309 5.837367311120033 -5.908743345178664 -5.113194407895207 -1.2524090856313705 6.513212449848652 5.781369657255709 12.106601029634476 3.67491299615358 -2.1634264811873436 -6.362368419766426 2.2360839750617743 2.5011252351105213 -10.66951295058243 -4.534690469503403 -7.696229167282581 3.7848113514482975 2.2705777883529663 -2.423727974295616
0.9469723254442215 8.745111322030425 9.21596970781684 1.9828961193561554 1.9260475911432877 -7.049449525307864 10.106749832630157 5.177154507488012 -8.254696058575064 -1.0198155138641596 -2.9492946676909924 0.6335253603756428 8.919209676794708 5.189808409661055 -6.381717301905155 -1.8813745714724064 3.359602752607316 1.4720790907740593 0.7059579417109489 2.622077708132565 -1.0296186655759811 -4.563247308135033 10.16416332917288 4.564449213445187 1.9201234430074692 4.400316637009382 -9.356143370270729 3.322194669395685 5.591125192120671 -2.719963677227497
-2.910169991198927 -2.2888871505856514 -6.672914276830852 -4.780717421323061 7.394309680908918 -0.6437278240919113 2.2248245552182198 -1.24929840862751 -14.244944453239441 3.1128522139042616 5.560013979673386 1.187413465231657 -2.682615526020527 -0.5190252289175987 -2.1292304564267397 -5.075196621008217 8.827990854158998 -1.967121735215187 8.203788712620735 -2.950377978384495 0.22059141471982002 -0.4293287415057421 -8.602116361260414 0.9949204064905643 -2.8388775512576103 4.351795293390751 5.74534472823143 -5.500207155942917 1.6077558198012412 4.489135663956404
6.0313447043299675 -4.019019436091185 -5.076621830463409 -2.4281346201896667 11.328436322975904 3.266986770555377 -4.425995856523514 4.4801748637109995 -11.094799746293575 5.128687314689159 8.072201150469482 -4.206489100586623 1.3183440305292606 -0.35732969641685486 -2.01186048053205 -0.2505468502640724 -0.12464319542050362 -7.505239315330982 7.653814190067351 5.766199602279812 2.219028525054455 -1.8314391523599625 1.0715930238366127 -2.1770813819020987 -0.1713990718126297 -5.363752566277981 3.131059266626835 2.9257365902885795 -0.15146975219249725 -10.128731328994036
3.309882804751396 4.898676350712776 9.648779193405062 1.9468036126345396 2.616549802944064 6.870401844382286 -1.7136641219258308 3.566239081323147 -11.204616960138083 -3.9003923274576664 0.04497886449098587 -5.883754663169384 0.7602936923503876 -7.668000854551792 -0.12704158015549183 -6.652728356420994 3.8405633601360023 -1.3886838220059872 4.76676269620657 8.334132730960846 13.64787046983838 4.390076279640198 9.792337941005826 5.502239104360342 -5.478045281022787 -10.758199849165976 -3.0548214316368103 -12.043717909604311 3.1976536102592945 -7.255500167608261
-1.2673688381910324 1.6088529452681541 3.528144434094429 8.484048075973988 6.496050458401442 -5.432237962260842 -10.183934667147696 1.3502170145511627 -6.77909342944622 4.1725207306444645 1.1035352991893888 10.565681992098689 -2.0869455887004733 -4.67470658570528 -12.830144703388214 -3.633633878082037 -0.5879044979810715 -3.39794513117522 5.818025954067707 3.62632261775434 12.445836298167706 5.659865133464336 10.736280540004373 -1.0276780501008034 -2.269938474521041 -8.281538542360067 3.783205669373274 -0.7407620828598738 4.5458409413695335 -8.4695328399539
0.9428925521206111 -5.246526792645454 -7.134842031868175 4.221462834626436 -9.4829697189125 -1.62190230935812 0.13227583840489388 0.8166000880300999 -10.38092689588666 -2.060219144448638 6.005325497826561 -4.245702596381307 2.8099245131015778 1.280444676289335 2.6918103429488838 -1.0717214047908783 3.316353291273117 -1.78998464345932 4.527156189084053 -12.083326656604186 3.2120380848646164 7.210104934871197 1.3100456818938255 2.977542377077043 -1.9909793796396116 -8.54075263114646 6.115534294396639 -1.5419606231153011 -0.11522437818348408 -8.059795366600156
-4.1752810552716255 -13.851395267993212 5.092638968955725 6.6279439106583595 1.6093653365969658 3.1892823688685894 -10.848949529230595 2.331308191642165 -5.6012064926326275 -0.6669115917757154 -8.112957840785384 5.695105934049934 -1.5176512189209461 -7.959910043515265 3.564406916499138 5.603652191814035 0.6889040265232325 -1.252921774983406 -3.4536109305918217 -0.8263645861297846 -8.743031881720526 -5.507360570132732 -0.3835153463296592 -7.144895389676094 2.5070264376699924 7.339938595890999 3.6603932273574173 -0.502108134329319 -0.512876883149147 0.1509137786924839
-5.762691903742962 1.7194328624755144 1.579782054759562 2.1292320932261646 3.134649702347815 0.24502726271748543 -2.1753039382892894 6.288407238200307 0.14664582535624504 -5.099349406547844 -2.714776363223791 -3.3952308297157288 2.731954276561737 2.9484667778015137 -2.2678500628098845 -5.922000553458929 -4.453030366450548 7.496316224336624 -4.104935605078936 -5.325487378053367 0.49934540316462517 3.607195425196551 0.24388890620321035 -10.02960748411715 4.347886949777603 -5.248698391020298 -5.0100899282842875 12.224991386057809 2.360592655837536 0.07111816667020321
0.6359367072582245 -3.248868128284812 10.11896826326847 1.1514346934854984 -1.7352535612881184 0.6675636544823647 2.186200074851513 -0.7186771966516972 3.328826181590557 0.10037956014275551 2.270415849983692 -3.2572489865124226 1.8706582263112068 -0.07674466306343675 0.7474906127899885 -1.3613180965185165 -4.413015723228455 -8.633230090141296 -3.9190901815891266 -12.030357278883457 -1.3158069998025894 -4.532087461557239 -9.704480743035674 -1.1633909596130252 -2.105989933013916 0.9476247429847717 -1.75143301486969 5.916598975658417 -0.5105849057435989 0.05216665007174015
