-1.6508028656244278 -0.5372132323682308 0.3236448897514492 8.484071865677834 3.1449994668364525 2.424739334732294 1.5244268886744976 -2.5662967152893543 1.747248474508524 0.43861979246139526 -3.045437056571245 2.5622612833976746 0.47297459840774536
-3.206203430891037 1.7104186853393912 -0.4106124397367239 3.86778511852026 -1.2721065897494555 2.8759891390800476 -2.3863131292164326 -0.6342465579509735 0.218929807189852 -0.03945937007665634 -2.922010660171509 3.2485316917300224 4.917081248015165
-6.967945605516434 4.269184561446309 5.143597133457661 10.25842897593975 -1.4631534181535244 -3.0982342064380646 -4.79708606004715 1.8742976449429989 -0.7991501800715923 -5.142544209957123 3.0749672055244446 2.5384465660899878 2.740692190825939
-0.2741817533969879 7.586519258096814 0.9519102638587356 1.381992882117629 -1.3836251497268677 -4.3726164773106575 -0.8392044436186552 -0.3623887076973915 1.2743936944752932 1.3482412490993738 -6.8793476186692715 1.2418150827288628 4.021021842956543
1.8890670649707317 3.413610063493252 -1.1798805594444275 -2.7493204921483994 -0.5645406097173691 -6.5182342156767845 -7.6408485770225525 -3.8509669452905655 -0.21566100418567657 -8.072486862540245 -3.923778221011162 -5.235120143741369 -5.928509443998337
-6.013633534312248 -0.9655420780181885 -1.4367779535241425 4.025968221947551 -3.324436192866415 1.7226948336465284 3.5446586310863495 -0.4187392368912697 3.436308301985264 0.47859327495098114 -3.379216194152832 -0.827661819756031 -2.648029536008835
-1.3760227113962173 3.3964180946350098 0.8135435283184052 -7.159447681158781 2.9363578110933304 -8.958857640624046 -1.7782171964645386 -4.900772005319595 -4.744315925985575 1.947879869490862 8.418566938489676 -1.3856533616781235 -3.801035612821579
-1.4151101876050234 5.190060257911682 0.08062710426747799 -4.028933774679899 0.6022760085761547 -1.7422973988577724 0.27471182495355606 2.688300943467766 3.439522033557296 -0.4230935429222882 3.4920946657657623 -3.3404771238565445 7.334188858047128
4.476000567898154 0.23730812221765518 -6.561095803976059 -5.346803903579712 2.6007132530212402 0.4827914759516716 -5.270457342267036 6.066200789064169 0.8238443024456501 4.2549775540828705 -1.5102384984493256 -1.644613727927208 -0.2407190203666687
5.7725591361522675 7.304747179150581 0.8479544408619404 -7.87349396944046 -1.1938887990545481 0.5927922949194908 -5.884903714060783 -0.029484301805496216 0.39586707949638367 1.7369645833969116 6.147810073569417 4.4759596437215805 -2.91879004240036
-4.142226718366146 5.189151473343372 -4.910168416798115 -1.190722867846489 6.20271098613739 -0.21489305794239044 -4.131771393120289 3.1301593258976936 1.5356919020414352 -0.32704759016633034 3.5123567655682564 -3.508508563041687 5.75141055136919
-0.07468220591545105 -5.595818981528282 -4.968941889703274 -4.060065744444728 -8.145153142511845 1.0547185242176056 -2.9609144693240523 -1.7759568765759468 3.3384015932679176 -3.4545965641736984 -1.6557095386087894 10.972243189811707 0.8857501111924648
-1.6173941045999527 -2.5542735997587442 4.796980559825897 -1.2653852738440037 2.88658943772316 1.0478432327508926 1.4620144623331726 0.6906482726335526 -0.7156389802694321 4.633153733797371 1.9100043196231127 4.231580495834351 0.8660782612860203
0.36857640370726585 -3.182231515645981 -4.703062802553177 1.5453720912337303 -0.5954969376325607 -0.678086256608367 0.6155179748311639 1.0217966362833977 -2.179507179185748 4.660223387181759 -0.20858880877494812 0.16274002380669117 3.9346492243930697
0.5089031821116805 -4.389478787779808 2.7270963340997696 -0.4100601114332676 -2.8151544332504272 1.4378066062927246 4.804101400077343 -3.8229060918092728 -4.374334413558245 3.76400992507115 5.463363707065582 1.1600395860150456 7.0121511816978455
3.8382588736712933 -2.632789321243763 4.116915959864855 1.82010542973876 -2.1079640723764896 4.508697988465428 3.5669652968645096 -0.5164334252476692 -2.681598622351885 -2.879850685596466 10.843602448701859 -2.7594487741589546 0.6534964106976986
