-0.9727534055709839 4.464893646538258 -0.2561221607029438 5.873761922121048 2.9951559007167816 -4.540820942260325 -8.184104181826115 5.908369440585375 -5.796549826860428 6.107182348612696 4.729694671928883 4.377451092004776 3.179310441017151 1.7973918449133635 -7.622329153120518 8.82425943389535 0.8457206273451447 -1.385956846177578 2.0635856483131647 2.918276458978653 7.11658276990056 -13.448323458433151
2.174749008845538 -2.566867895424366 -6.818451076745987 -5.679648514837027 0.3208925351500511 2.0155291482806206 7.767341889441013 1.9901302822399884 -3.402678548824042 -0.7128940299153328 -8.50931882020086 9.621829513460398 -11.746927939355373 7.456289567053318 -0.5462961089797318 -1.4652482457458973 -2.9418113827705383 5.674573674798012 -8.779635585844517 -7.7292027324438095 0.3804304674267769 9.8100031837821
-0.20786581933498383 -2.772120738402009 -15.782591000199318 1.3346257947850972 -2.2081096144393086 2.6817408576607704 3.960641399025917 3.071399189531803 -7.351611485471949 -4.632381777279079 -6.678800992667675 -2.727720580995083 -2.9971682280302048 4.935627814382315 7.248361051082611 1.8088334389030933 5.513694018125534 0.05744469165802002 -1.4424971789121628 3.5155813805758953 -1.1232461407780647 -4.458572981879115
0.6471782261505723 -0.9819430969655514 4.267330996692181 4.695032570511103 2.3550453428179026 0.8092524111270905 -1.0497119009960443 4.739069327712059 1.6677262037992477 -4.789808992296457 6.271355916745961 -3.4268676713109016 10.83548866212368 0.42678843811154366 -0.5571813955903053 4.053737886250019 4.718937577679753 5.614134982228279 -9.187349334359169 0.06920992583036423 0.29723288118839264 -4.144008219242096
3.6287128692492843 -7.70935632288456 -8.405427526682615 -2.5174118615686893 -4.470528922975063 1.187256601639092 -8.343491233885288 6.784412947483361 0.21190792322158813 -1.9616921991109848 -1.6723078079521656 -4.910099238157272 5.821732399985194 8.950195881538093 -3.2778556123375893 -1.5832293033599854 -4.397117596119642 -9.844476826488972 -3.3212206792086363 -3.212771376594901 8.012760430574417 4.527725785970688
1.7004623487591743 -12.769883789122105 -4.45060115493834 -1.439052738249302 2.670080994721502 -2.593461986631155 0.6578196063637733 6.476159244775772 -1.4404906230047345 -3.79081891477108 0.13988734409213066 7.336724452674389 3.623966120183468 -1.9674356281757355 -2.796590384095907 0.015630461275577545 4.955622565001249 0.07047025114297867 -6.811603799462318 -3.5341349989175797 5.958823399618268 -7.711094290018082
4.5153729021549225 -5.235433962719981 4.23094067722559 6.03405407583341 1.0513101941905916 -1.045950524508953 5.8176041804254055 0.6512468438595533 -3.5646854490041733 -8.780178889632225 3.696904845535755 3.569881971925497 -1.8291735609527677 -5.300910344347358 7.450555304996669 -2.0333317667245865 2.364472270011902 -1.998073329217732 2.057395279407501 1.1945101618766785 -1.948341066017747 -0.23624323215335608
-4.32558361068368 -1.6195988487452269 -5.5839444771409035 3.124190416187048 -5.04496631026268 1.5429103227797896 -1.1868717521429062 -0.6896638805046678 -3.649853140115738 0.03949170187115669 0.6705943942070007 3.4116422459483147 -2.494476992636919 -2.4543135836720467 4.488740213215351 3.408905810327269 -3.8881248757243156 3.5766720548272133 -1.8046471402049065 -2.098654132336378 7.734148435294628 -3.95715719088912
-4.600125208497047 2.497554361820221 4.214901898056269 -4.6014150362461805 3.284915807656944 -0.9946795552968979 3.3788331374526024 4.416158298496157 1.3073480054736137 7.2302800551988184 -0.6202566176652908 7.1477345041930676 4.642352536320686 -9.859421565197408 1.4320571552962065 1.1873631989583373 2.757172003388405 -4.20729237049818 2.6364161036908627 -13.217698648571968 -0.6123696248978376 3.9728779196739197
-0.785454235970974 0.8148769470863044 1.375857125967741 -0.3047071471810341 1.665027216076851 -0.423247754573822 -5.425466597080231 -3.3198471032083035 -7.675873514264822 0.6091567575931549 -2.8606316596269608 5.527357133105397 -9.097112134099007 -0.7202448761090636 1.7249937392771244 9.245337150990963 5.098740920424461 -5.087652809917927 -7.643825201550499 3.423284064978361 -0.1713209431618452 6.85024419426918
2.119410961866379 -0.5113327205181122 0.771676778793335 7.649678826332092 -4.416875356808305 2.9618692360818386 -10.135475356131792 7.647933065891266 -9.368340790271759 -2.9876300245523453 -0.7767803817987442 5.016471344977617 -9.971150474622846 -0.8510517254471779 2.5392534751445055 2.8515505194664 5.49238745868206 3.5896906033158302 -4.2116848193109035 0.32196950167417526 0.9911041930317879 4.162695057690144
-7.216408014297485 2.3065132293850183 1.6862414926290512 -8.504866320639849 -0.6692502085352316 -2.7529124543070793 -7.685553714632988 -4.290190100669861 5.828256390988827 -1.80471720546484 -3.2173572927713394 -4.9236094653606415 0.6514234766364098 2.721325932536274 -0.3752875253558159 -0.05483851209282875 2.531308863312006 7.544705361127853 -5.841605996713042 -0.7607661709189415 0.8450333625078201 -4.760714754462242
0.5729381516575813 -2.15752175450325 -1.8759315367788076 0.3987557888031006 -5.301239728927612 6.053034584969282 0.012505725026130676 0.5132591538131237 -3.189918577671051 -3.6352252643555403 -6.952519983053207 -4.504632763564587 -4.53720965469256 -0.6708856672048569 -1.585494790226221 4.406362522393465 -5.268426783382893 -10.605566639453173 -4.4678855165839195 6.979767648037523 0.5628169402480125 0.767356738448143
1.733962394297123 6.5042643919587135 7.44489412009716 -4.492280022241175 3.9544777870178223 0.9236055724322796 0.5990146137773991 1.91758181899786 -3.0448752269148827 3.63281612098217 4.172384530305862 7.2123252265155315 7.7797055542469025 -0.7495691627264023 6.085727296769619 -5.749871671199799 3.4100495390594006 -2.3668722324073315 0.17736326158046722 8.530283823609352 0.822374870069325 0.1769690103828907
2.6920814979821444 -1.6551357740536332 0.45981162087991834 0.8699605166912079 4.572195872664452 -3.4993390887975693 -7.007692616432905 4.128934428095818 2.4660501088947058 -1.4148717187345028 -1.767022006213665 -1.190645208582282 -4.995364934206009 -2.111190840601921 -3.164405159652233 10.812792025506496 4.658753249794245 -6.840463988482952 -3.879223942756653 0.5534645058214664 -0.5711554624140263 -5.5462363585829735
2.234336718916893 3.6833089841529727 -0.8910144679248333 6.758806191384792 0.22302791476249695 3.962746359873563 -5.017608806490898 1.915223628282547 1.2403446212410927 3.1608850099146366 -0.7041190415620804 -2.5344430645927787 -1.1403822423890233 -5.543546836241148 1.1665052026510239 3.625886737369001 6.743000499904156 -2.021415412425995 4.766962081193924 3.3585506193339825 -0.8254041741602123 6.647805098444223
-4.457466498017311 2.901709844591096 1.7425064072012901 2.947326675057411 0.21175549924373627 0.19201792776584625 3.5472113066352904 -2.31982783973217 5.271239860681817 3.57810390740633 3.9968128819018602 1.12001415155828 -0.963644340634346 0.615943874232471 8.488142162561417 -1.7548002963885665 1.6337063312530518 -1.0308315008878708 -7.136803679168224 -6.515348017215729 0.1392914280295372 6.8571590557694435
-12.772702794522047 -9.363638401031494 -4.788025738671422 4.0711162611842155 -1.1212524361908436 -0.6631952375173569 3.778100408613682 0.03550785779953003 -3.394430708140135 -3.82867044582963 10.968951590359211 -2.0571006536483765 -4.277762416750193 -2.5063898600637913 -1.6752967238426208 -4.709571853280067 2.8321264386177063 3.0159770399332047 -7.633922123350203 8.268739715218544 -0.2898411974310875 -5.743895826861262
-0.1626817835494876 -8.789922937750816 -2.4287316938862205 0.23960690200328827 -2.1927141547203064 4.287155736237764 3.8559038806706667 1.681335762143135 -7.741528362035751 4.440163254737854 5.236788958311081 7.2616511434316635 1.3811372723430395 3.4112614542245865 3.6678914446383715 6.559073932468891 -2.4907329445704818 3.1839889865368605 -3.553520329296589 1.3048928752541542 -0.6790056452155113 -9.665268585085869
-1.9832998467609286 -4.369227971881628 1.353494232520461 12.141795909032226 -4.592697009444237 0.5245831087231636 -6.399346426129341 -1.3960612900555134 3.5873064745101146 3.1617459878325462 -8.39023775793612 1.7873820457607508 -0.5967008545994759 -2.2571950319688767 3.956825779750943 -2.451804704964161 0.6388314180076122 -3.880323141813278 1.0599063634872437 0.7866936549544334 1.879297710955143 -1.1327884644269943
-7.440825130790472 -1.9006479755043983 -2.338182497769594 6.765667352825403 -0.667619074229151 -0.17817011871375144 8.534110393375158 0.05282846838235855 6.824666628614068 -2.1281921230256557 -1.705356577411294 -1.624239899967506 4.753271676599979 1.187761526554823 -2.8847981113940477 4.682636816054583 -3.892709031701088 8.777646156027913 -4.088905840180814 4.106906443834305 -1.110222041606903 6.288609727751464
4.704870261251926 15.064431454986334 5.740608965978026 4.345531824976206 -4.358757168054581 0.7621162086725235 -0.039862290024757385 -8.25430727750063 0.17313086055219173 4.538673868402839 0.9697364568710327 -0.8752959072589874 -0.6115322709083557 2.746537372469902 -2.9953647553920746 9.00607019662857 2.7452273350208998 -2.4691425431519747 0.5896703163161874 -0.8548683077096939 2.360643059015274 1.6029236558824778
-2.2187277376651764 0.23434454877860844 -7.480585463345051 3.53413325548172 -1.8974541742354631 2.3406226336956024 -2.0187933892011642 -4.431758247315884 -0.7613977640867233 -0.7900092862546444 1.5882425010204315 -3.866799327544868 1.1292898878455162 1.2427972862496972 -8.850670095533133 -1.5434251725673676 -3.645547065883875 3.2700801864266396 6.089867986738682 1.7544616060331464 1.8290314599871635 -1.414969801902771
-3.5234371945261955 0.32234157621860504 -6.017912075854838 4.479619599878788 -3.8645801469683647 7.145874172449112 4.213724821805954 -0.7580565810203552 -3.7138470113277435 -1.7012829184532166 -5.618611171841621 1.0583196207880974 -0.03930894285440445 -8.915087102446705 0.7621533498167992 1.406325975432992 6.139289603102952 5.909636311233044 -0.6942899227142334 0.11620314791798592 -5.636786304414272 2.173267999663949
8.653244212269783 -1.4519006796181202 -2.596004270017147 1.9847598187625408 3.4613678455352783 3.8859287910163403 1.6824257299304008 3.5227726995944977 -5.22390104457736 0.7274392517283559 -2.512021128088236 17.195718489587307 -7.648962512612343 3.528820665087551 -0.22254402469843626 -2.0402872301638126 0.4059080258011818 -6.772157829254866 0.45963726192712784 -6.125643111765385 3.81935578584671 6.568364001810551
-3.199315071105957 0.8394125215709209 7.57749741896987 -4.056470286101103 4.8802788853645325 3.323350664228201 -0.6046706633642316 0.7781213596463203 -2.518403112888336 -5.116510877851397 2.5859152204357088 -0.682541124522686 9.225426801363938 -0.9728874806314707 8.17555789090693 0.4377292033750564 -6.946951251477003 -2.7245538644492626 -3.5848379358649254 1.1741254329681396 0.09635837282985449 3.6406709402799606
4.250700410455465 0.2610615435987711 2.112893169745803 -0.43723195791244507 -1.4902275204658508 1.1455535367131233 -4.398950431495905 6.564875811338425 -7.67339850589633 -3.4454638259485364 3.7135286615230143 -3.2742147222161293 3.2090982225490734 -4.122382074594498 1.8730001226067543 0.04954157769680023 1.4992678984999657 -10.651541247963905 2.9100612914189696 -4.49406203511171 -3.0229151379317045 4.650381896644831
-3.7704050748143345 -6.8449779115617275 4.491363354027271 3.2859917543828487 1.5187935158610344 1.5093130795285106 -4.282029423862696 1.6206158511340618 8.079467386007309 -3.909163376316428 0.8956892043352127 1.2476824447512627 0.02458544820547104 2.4337764754891396 -1.9017899855971336 -5.360441777855158 2.6792843639850616 1.8286823779344559 -0.8157912492752075 1.2331921730656177 -1.838193491101265 -5.797208294272423
2.5684729451313615 0.8624133635312319 -5.305825989693403 8.293317291885614 -0.35890505090355873 -2.740787908434868 4.448519729077816 5.189410034567118 1.7335771028883755 -8.435709610581398 -0.049529068637639284 -2.75810644030571 5.3530215714126825 -0.17040014220401645 1.822555212303996 0.7838789150118828 -0.4555044583976269 0.46064989268779755 -0.4395292177796364 0.8588414788246155 0.3707348257303238 1.181121532805264
1.7039181469008327 4.198891777545214 -2.3301121406257153 0.704591691493988 -0.8058678805828094 -1.4064282663166523 0.28946543112397194 8.659028634428978 -10.12555418163538 3.019341617822647 1.352334387600422 -7.4147628247737885 3.4873641431331635 5.2668787986040115 10.572599202394485 -3.1640835031867027 -6.900397925637662 -2.4751084372401237 -0.27926353365182877 -0.28057318553328514 1.0238951593637466 3.426018677651882
-1.7151237577199936 -2.543608855456114 3.6517871115356684 -1.6871775388717651 2.5931567661464214 2.4494905122555792 -2.8782315999269485 -0.3933161646127701 4.229622699320316 4.961616158485413 -2.713681023567915 2.721867337822914 6.402632489800453 4.628906488418579 -0.10780014097690582 6.501827992498875 0.1884390339255333 -0.5097142932936549 -1.2221374735236168 1.3968404680490494 7.184835631400347 -2.1748952455818653
0.6220443584024906 1.9001692160964012 -9.634391674306244 -1.014805881306529 -3.3714230805635452 -2.9729231521487236 0.8981561088003218 5.1617282796651125 -0.45350390300154686 -0.165416419506073 4.246191747486591 0.7626519128680229 -6.211656179279089 -5.558511117473245 1.6843530870974064 -12.340474337455817 -3.566842379514128 4.784113623201847 4.345280778128654 10.583699941635132 -7.433920433744788 -5.388695418834686
