1.3211173601448536 2.352156427281443 1.0167275704443455 0.7608854547142982 1.7327571953646839 8.640336448326707 3.740215178579092 1.9160511381924152 -1.8002670239657164 -9.674210779368877 -9.611759707331657 3.502476578578353 -3.53091474622488 2.7002589255571365 -1.3551384583115578 3.184965893626213 -1.8700398355722427 -5.06351606734097 3.998375609284267 0.00443384051322937 2.623589538037777 -2.974087033420801
-1.8660519160330296 11.184539563953876 -1.3911546664312482 -1.4375296412035823 5.855870366096497 -2.9852011501789093 11.076945684850216 0.643945649266243 3.9281916581094265 -2.4102464094758034 -0.20658167451620102 -10.286376532167196 9.329487681388855 4.625787567347288 -4.267210025340319 -6.717086434364319 -4.326645810157061 -6.593901045620441 1.960649274289608 -1.5573434829711914 -11.906400026753545 2.0024602189660072
-0.15843036770820618 -0.48471277207136154 -1.0625216960906982 -1.1719344109296799 4.612475270405412 -2.4877610970288515 1.1950866132974625 -0.839307626709342 -7.051253627985716 -3.862464534584433 -0.27454035729169846 -3.9670895412564278 0.09971210360527039 -1.6397518925368786 10.560149859637022 -5.063871495425701 1.7608920820057392 -7.9714596681296825 -2.0511143393814564 -3.7507281601428986 5.055841747671366 -2.7803322225809097
-5.323521103709936 -1.216983761638403 -3.6710216756910086 4.501198953017592 5.541821300983429 7.840030229650438 2.1518189907073975 2.2154288850724697 5.5862397842574865 -3.1277718394994736 2.701824188232422 -3.427515983581543 8.55822116881609 -9.091098599135876 9.899076908826828 -4.45534305786714 -7.020514450967312 3.630407139658928 -9.207015143707395 -9.41770177707076 -7.723838426172733 5.1314663253724575
6.876326866447926 6.396715167909861 2.5431726947426796 -7.965999035164714 3.383226629346609 9.792634561657906 1.9726771172136068 5.419321710243821 5.541676074266434 3.3176054656505585 -1.3574889302253723 0.3797686230391264 0.031431376934051514 -1.089603677392006 1.0063561759889126 0.4361385777592659 -0.12375680357217789 4.645403653383255 0.23159167170524597 7.8842898067086935 -6.649334315210581 3.3356273844838142
-2.6066356562078 2.4728292832151055 -5.338082484900951 5.188133001327515 0.511510982119944 4.295624889433384 -0.21061159670352936 3.0888956673443317 14.005593672394753 -6.515500230714679 2.904327322728932 0.6514824949263129 3.233725845813751 -9.928979761898518 -2.514480470214039 -3.319996977224946 -1.3840498998761177 5.693213853985071 -5.769403553567827 -1.7234973823651671 5.121329426765442 -5.6792164240032434
1.5618851333856583 6.3166998364031315 8.22332388907671 -1.4542886950075626 -0.7160740196704865 -3.463011711835861 -2.2057569175958633 -5.900218993425369 7.110487189143896 1.9283429645001888 -0.32097046822309494 -9.319163640029728 1.3097444251179695 -1.404197707772255 0.7467483235523105 0.8219946548342705 4.153033511713147 -7.97749550640583 -0.13964618276804686 -1.1697654258459806 1.7331548668444157 -3.3403040040284395
-11.744494967162609 -2.5490832552313805 -3.3244592325063422 -4.244249671697617 -5.016014983761124 6.575459070503712 1.645033672451973 2.4479641104117036 2.6000093892216682 -2.6134413331747055 6.655774090439081 -0.7368299784138799 -3.008317136205733 0.1250387541949749 -3.4019737243652344 -6.751154750585556 -10.837557984516025 4.215318502858281 -1.2321656476706266 -1.821838837582618 -7.058179400861263 5.016390435397625
1.3211173601448536 2.352156427281443 1.0167275704443455 0.7608854547142982 1.7327571953646839 8.640336448326707 3.740215178579092 1.9160511381924152 -1.8002670239657164 -9.674210779368877 -9.611759707331657 3.502476578578353 -3.53091474622488 2.7002589255571365 -1.3551384583115578 3.184965893626213 -1.8700398355722427 -5.06351606734097 3.998375609284267 0.00443384051322937 2.623589538037777 -2.974087033420801
-1.8660519160330296 11.184539563953876 -1.3911546664312482 -1.4375296412035823 5.855870366096497 -2.9852011501789093 11.076945684850216 0.643945649266243 3.9281916581094265 -2.4102464094758034 -0.20658167451620102 -10.286376532167196 9.329487681388855 4.625787567347288 -4.267210025340319 -6.717086434364319 -4.326645810157061 -6.593901045620441 1.960649274289608 -1.5573434829711914 -11.906400026753545 2.0024602189660072
-0.15843036770820618 -0.48471277207136154 -1.0625216960906982 -1.1719344109296799 4.612475270405412 -2.4877610970288515 1.1950866132974625 -0.839307626709342 -7.051253627985716 -3.862464534584433 -0.27454035729169846 -3.9670895412564278 0.09971210360527039 -1.6397518925368786 10.560149859637022 -5.063871495425701 1.7608920820057392 -7.9714596681296825 -2.0511143393814564 -3.7507281601428986 5.055841747671366 -2.7803322225809097
-5.323521103709936 -1.216983761638403 -3.6710216756910086 4.501198953017592 5.541821300983429 7.840030229650438 2.1518189907073975 2.2154288850724697 5.5862397842574865 -3.1277718394994736 2.701824188232422 -3.427515983581543 8.55822116881609 -9.091098599135876 9.899076908826828 -4.45534305786714 -7.020514450967312 3.630407139658928 -9.207015143707395 -9.41770177707076 -7.723838426172733 5.1314663253724575
6.876326866447926 6.396715167909861 2.5431726947426796 -7.965999035164714 3.383226629346609 9.792634561657906 1.9726771172136068 5.419321710243821 5.541676074266434 3.3176054656505585 -1.3574889302253723 0.3797686230391264 0.031431376934051514 -1.089603677392006 1.0063561759889126 0.4361385777592659 -0.12375680357217789 4.645403653383255 0.23159167170524597 7.8842898067086935 -6.649334315210581 3.3356273844838142
-2.6066356562078 2.4728292832151055 -5.338082484900951 5.188133001327515 0.511510982119944 4.295624889433384 -0.21061159670352936 3.0888956673443317 14.005593672394753 -6.515500230714679 2.904327322728932 0.6514824949263129 3.233725845813751 -9.928979761898518 -2.514480470214039 -3.319996977224946 -1.3840498998761177 5.693213853985071 -5.769403553567827 -1.7234973823651671 5.121329426765442 -5.6792164240032434
1.5618851333856583 6.3166998364031315 8.22332388907671 -1.4542886950075626 -0.7160740196704865 -3.463011711835861 -2.2057569175958633 -5.900218993425369 7.110487189143896 1.9283429645001888 -0.32097046822309494 -9.319163640029728 1.3097444251179695 -1.404197707772255 0.7467483235523105 0.8219946548342705 4.153033511713147 -7.97749550640583 -0.13964618276804686 -1.1697654258459806 1.7331548668444157 -3.3403040040284395
-11.744494967162609 -2.5490832552313805 -3.3244592325063422 -4.244249671697617 -5.016014983761124 6.575459070503712 1.645033672451973 2.4479641104117036 2.6000093892216682 -2.6134413331747055 6.655774090439081 -0.7368299784138799 -3.008317136205733 0.1250387541949749 -3.4019737243652344 -6.751154750585556 -10.837557984516025 4.215318502858281 -1.2321656476706266 -1.821838837582618 -7.058179400861263 5.016390435397625
1.3211173601448536 2.352156427281443 1.0167275704443455 0.7608854547142982 1.7327571953646839 8.640336448326707 3.740215178579092 1.9160511381924152 -1.8002670239657164 -9.674210779368877 -9.611759707331657 3.502476578578353 -3.53091474622488 2.7002589255571365 -1.3551384583115578 3.184965893626213 -1.8700398355722427 -5.06351606734097 3.998375609284267 0.00443384051322937 2.623589538037777 -2.974087033420801
-1.8660519160330296 11.184539563953876 -1.3911546664312482 -1.4375296412035823 5.855870366096497 -2.9852011501789093 11.076945684850216 0.643945649266243 3.9281916581094265 -2.4102464094758034 -0.20658167451620102 -10.286376532167196 9.329487681388855 4.625787567347288 -4.267210025340319 -6.717086434364319 -4.326645810157061 -6.593901045620441 1.960649274289608 -1.5573434829711914 -11.906400026753545 2.0024602189660072
-0.15843036770820618 -0.48471277207136154 -1.0625216960906982 -1.1719344109296799 4.612475270405412 -2.4877610970288515 1.1950866132974625 -0.839307626709342 -7.051253627985716 -3.862464534584433 -0.27454035729169846 -3.9670895412564278 0.09971210360527039 -1.6397518925368786 10.560149859637022 -5.063871495425701 1.7608920820057392 -7.9714596681296825 -2.0511143393814564 -3.7507281601428986 5.055841747671366 -2.7803322225809097
-5.323521103709936 -1.216983761638403 -3.6710216756910086 4.501198953017592 5.541821300983429 7.840030229650438 2.1518189907073975 2.2154288850724697 5.5862397842574865 -3.1277718394994736 2.701824188232422 -3.427515983581543 8.55822116881609 -9.091098599135876 9.899076908826828 -4.45534305786714 -7.020514450967312 3.630407139658928 -9.207015143707395 -9.41770177707076 -7.723838426172733 5.1314663253724575
6.876326866447926 6.396715167909861 2.5431726947426796 -7.965999035164714 3.383226629346609 9.792634561657906 1.9726771172136068 5.419321710243821 5.541676074266434 3.3176054656505585 -1.3574889302253723 0.3797686230391264 0.031431376934051514 -1.089603677392006 1.0063561759889126 0.4361385777592659 -0.12375680357217789 4.645403653383255 0.23159167170524597 7.8842898067086935 -6.649334315210581 3.3356273844838142
-2.6066356562078 2.4728292832151055 -5.338082484900951 5.188133001327515 0.511510982119944 4.295624889433384 -0.21061159670352936 3.0888956673443317 14.005593672394753 -6.515500230714679 2.904327322728932 0.6514824949263129 3.233725845813751 -9.928979761898518 -2.514480470214039 -3.319996977224946 -1.3840498998761177 5.693213853985071 -5.769403553567827 -1.7234973823651671 5.121329426765442 -5.6792164240032434
1.5618851333856583 6.3166998364031315 8.22332388907671 -1.4542886950075626 -0.7160740196704865 -3.463011711835861 -2.2057569175958633 -5.900218993425369 7.110487189143896 1.9283429645001888 -0.32097046822309494 -9.319163640029728 1.3097444251179695 -1.404197707772255 0.7467483235523105 0.8219946548342705 4.153033511713147 -7.97749550640583 -0.13964618276804686 -1.1697654258459806 1.7331548668444157 -3.3403040040284395
-11.744494967162609 -2.5490832552313805 -3.3244592325063422 -4.244249671697617 -5.016014983761124 6.575459070503712 1.645033672451973 2.4479641104117036 2.6000093892216682 -2.6134413331747055 6.655774090439081 -0.7368299784138799 -3.008317136205733 0.1250387541949749 -3.4019737243652344 -6.751154750585556 -10.837557984516025 4.215318502858281 -1.2321656476706266 -1.821838837582618 -7.058179400861263 5.016390435397625
1.3211173601448536 2.352156427281443 1.0167275704443455 0.7608854547142982 1.7327571953646839 8.640336448326707 3.740215178579092 1.9160511381924152 -1.8002670239657164 -9.674210779368877 -9.611759707331657 3.502476578578353 -3.53091474622488 2.7002589255571365 -1.3551384583115578 3.184965893626213 -1.8700398355722427 -5.06351606734097 3.998375609284267 0.00443384051322937 2.623589538037777 -2.974087033420801
-1.8660519160330296 11.184539563953876 -1.3911546664312482 -1.4375296412035823 5.855870366096497 -2.9852011501789093 11.076945684850216 0.643945649266243 3.9281916581094265 -2.4102464094758034 -0.20658167451620102 -10.286376532167196 9.329487681388855 4.625787567347288 -4.267210025340319 -6.717086434364319 -4.326645810157061 -6.593901045620441 1.960649274289608 -1.5573434829711914 -11.906400026753545 2.0024602189660072
-0.15843036770820618 -0.48471277207136154 -1.0625216960906982 -1.1719344109296799 4.612475270405412 -2.4877610970288515 1.1950866132974625 -0.839307626709342 -7.051253627985716 -3.862464534584433 -0.27454035729169846 -3.9670895412564278 0.09971210360527039 -1.6397518925368786 10.560149859637022 -5.063871495425701 1.7608920820057392 -7.9714596681296825 -2.0511143393814564 -3.7507281601428986 5.055841747671366 -2.7803322225809097
-5.323521103709936 -1.216983761638403 -3.6710216756910086 4.501198953017592 5.541821300983429 7.840030229650438 2.1518189907073975 2.2154288850724697 5.5862397842574865 -3.1277718394994736 2.701824188232422 -3.427515983581543 8.55822116881609 -9.091098599135876 9.899076908826828 -4.45534305786714 -7.020514450967312 3.630407139658928 -9.207015143707395 -9.41770177707076 -7.723838426172733 5.1314663253724575
6.876326866447926 6.396715167909861 2.5431726947426796 -7.965999035164714 3.383226629346609 9.792634561657906 1.9726771172136068 5.419321710243821 5.541676074266434 3.3176054656505585 -1.3574889302253723 0.3797686230391264 0.031431376934051514 -1.089603677392006 1.0063561759889126 0.4361385777592659 -0.12375680357217789 4.645403653383255 0.23159167170524597 7.8842898067086935 -6.649334315210581 3.3356273844838142
-2.6066356562078 2.4728292832151055 -5.338082484900951 5.188133001327515 0.511510982119944 4.295624889433384 -0.21061159670352936 3.0888956673443317 14.005593672394753 -6.515500230714679 2.904327322728932 0.6514824949263129 3.233725845813751 -9.928979761898518 -2.514480470214039 -3.319996977224946 -1.3840498998761177 5.693213853985071 -5.769403553567827 -1.7234973823651671 5.121329426765442 -5.6792164240032434
1.5618851333856583 6.3166998364031315 8.22332388907671 -1.4542886950075626 -0.7160740196704865 -3.463011711835861 -2.2057569175958633 -5.900218993425369 7.110487189143896 1.9283429645001888 -0.32097046822309494 -9.319163640029728 1.3097444251179695 -1.404197707772255 0.7467483235523105 0.8219946548342705 4.153033511713147 -7.97749550640583 -0.13964618276804686 -1.1697654258459806 1.7331548668444157 -3.3403040040284395
-11.744494967162609 -2.5490832552313805 -3.3244592325063422 -4.244249671697617 -5.016014983761124 6.575459070503712 1.645033672451973 2.4479641104117036 2.6000093892216682 -2.6134413331747055 6.655774090439081 -0.7368299784138799 -3.008317136205733 0.1250387541949749 -3.4019737243652344 -6.751154750585556 -10.837557984516025 4.215318502858281 -1.2321656476706266 -1.821838837582618 -7.058179400861263 5.016390435397625
