1.2826483948156238 1.714181099087 1.6445356744807214 2.4278242588043213 -2.2373735643923283 -6.690377494320273 1.1942146457731724 -5.884043560363352 -2.002115974202752 4.6799498768523335 -6.087919762358069 5.186337066814303 -13.808842949569225 -5.5329670906066895 13.959288188256323 -7.598862890154123 11.660664081573486 2.4900525882840157 7.626472929492593 -3.8116619996726513 7.460780885070562 -2.186082512140274 3.895018476061523 -9.128362782299519 6.52539899200201 -2.5132304430007935 -0.8201717138290405 -6.134040414355695 -2.4460775833576918 3.591003181412816
-7.0088337659835815 -1.0964491665363312 -6.029895821586251 4.14470349624753 -3.0365314073860645 0.8728520120494068 1.1063512936234474 3.702642038464546 -2.744328254077118 -3.273098612204194 -5.145194425713271 7.291096405126154 -5.017521947622299 -4.411819400265813 -1.476354870479554 -2.2491577118635178 7.167955208569765 -3.795819068327546 2.647922493517399 11.367457389831543 -2.7168120685964823 -4.415645418688655 -7.539060089737177 -1.8477021269500256 -2.7884465539827943 -1.5371954888105392 -6.369071749038994 2.260390557348728 -9.137521440163255 -0.6091102794744074
3.261599861085415 -7.572519718363765 -2.137290645390749 4.23758265376091 3.0076182913035154 6.738427025731653 14.511442340910435 6.1053277105093 8.916796830482781 4.186547603458166 4.234837583266199 -3.8734357431530952 -4.746109947562218 -2.158135052770376 4.352799080312252 9.579930908977985 -1.1933225020766258 -0.19333567470312119 0.47186530847102404 -6.527919569169171 -8.225953917950392 -2.0353219155222178 -2.3857225151732564 10.28164640814066 5.473973989486694 10.760468805208802 5.414913202635944 4.949812777340412 -2.793600358068943 -2.7697660359553993
7.3963755941949785 3.7278273329138756 -1.8530871830880642 -1.3509443160146475 4.473937880247831 -2.4494836516678333 0.9506791979074478 10.32007054053247 -3.0828485414385796 -13.34718844667077 3.5138492677360773 5.332782909274101 -6.534335373668 -3.657119318842888 2.5850080545060337 -6.867774173617363 4.109311822801828 5.4278300777077675 -6.118987113237381 5.208045003935695 5.77987615019083 6.935015944065526 7.671002320945263 6.967449591495097 6.4643407091498375 4.476001347415149 1.587301328778267 5.877293659374118 -10.179627117700875 1.2828902527689934
17.780423413030803 4.800413876771927 3.9552480205893517 -3.6837721751071513 -2.241057578474283 -5.584196105599403 4.9718944914639 -3.696788078173995 -2.5389845184981823 -0.7456235811114311 -2.0098612564615905 5.083024428342469 -1.7292298572137952 -11.475218635052443 7.851128853857517 -7.818770833313465 -3.7045823642984033 0.317467100918293 1.1286447839811444 -7.706809928640723 -9.716921336948872 -1.6066009208734613 -2.6052997559309006 2.118101455271244 3.5094352029263973 3.2628196347504854 -5.72800552053377 2.466249331831932 9.412969020893797 -14.471213506534696
-2.251581694930792 -2.474673396907747 2.9609004743397236 5.194973986595869 -2.010684199631214 9.33878524415195 3.468026902526617 -5.236757896840572 8.504599638283253 5.062239222228527 10.832866022363305 -9.55826626997441 -4.955130327492952 8.012984871864319 -2.2181663382798433 -4.370922049507499 -0.8080910383723676 -2.888797402381897 -2.2002301546745002 -5.600141458213329 4.357453500764677 1.5333341658115387 0.4519855435937643 1.2059254990890622 -2.66535481531173 2.3168989934492856 -1.2966096634045243 -6.854995779693127 3.366021677851677 0.1928350254893303
0.6211259569972754 -5.108676042407751 2.7283084839582443 -8.30182939209044 12.143969796597958 -3.8801713176071644 5.05403202958405 1.892786629498005 3.985139697790146 0.34930646419525146 1.7470746077597141 -10.596086487174034 -11.322899118065834 -5.99100224301219 -1.3289213180541992 -1.5788648203015327 1.144470937550068 -0.9123173542320728 -2.449909022077918 0.5561502575874329 3.102075941860676 1.1641492620110512 3.81631017383188 8.020202098414302 -3.9589599519968033 7.2044159434735775 6.1446792664937675 -3.3145109824836254 -0.2426421195268631 -2.620498693548143
-2.521919574588537 -5.344261150807142 -0.09412982687354088 -1.5808588471263647 3.4839298594743013 -1.52527935244143 4.264325454831123 2.332325709052384 -0.2047898054588586 -6.426723292097449 -1.0964861437678337 -2.5878418162465096 -2.0049278885126114 -7.642171757295728 7.842192028590944 -2.1456049978733063 6.318748600780964 3.7525749802589417 -0.7513502486981452 0.7540725632570684 1.3353155741933733 -5.428879110142589 -11.592798974364996 1.6567084528505802 -4.338597547262907 -0.022910544648766518 -0.9280279204249382 1.2940121069550514 5.051578619517386 -5.001671120524406
1.2826483948156238 1.714181099087 1.6445356744807214 2.4278242588043213 -2.2373735643923283 -6.690377494320273 1.1942146457731724 -5.884043560363352 -2.002115974202752 4.6799498768523335 -6.087919762358069 5.186337066814303 -13.808842949569225 -5.5329670906066895 13.959288188256323 -7.598862890154123 11.660664081573486 2.4900525882840157 7.626472929492593 -3.8116619996726513 7.460780885070562 -2.186082512140274 3.895018476061523 -9.128362782299519 6.52539899200201 -2.5132304430007935 -0.8201717138290405 -6.134040414355695 -2.4460775833576918 3.591003181412816
-7.0088337659835815 -1.0964491665363312 -6.029895821586251 4.14470349624753 -3.0365314073860645 0.8728520120494068 1.1063512936234474 3.702642038464546 -2.744328254077118 -3.273098612204194 -5.145194425713271 7.291096405126154 -5.017521947622299 -4.411819400265813 -1.476354870479554 -2.2491577118635178 7.167955208569765 -3.795819068327546 2.647922493517399 11.367457389831543 -2.7168120685964823 -4.415645418688655 -7.539060089737177 -1.8477021269500256 -2.7884465539827943 -1.5371954888105392 -6.369071749038994 2.260390557348728 -9.137521440163255 -0.6091102794744074
3.261599861085415 -7.572519718363765 -2.137290645390749 4.23758265376091 3.0076182913035154 6.738427025731653 14.511442340910435 6.1053277105093 8.916796830482781 4.186547603458166 4.234837583266199 -3.8734357431530952 -4.746109947562218 -2.158135052770376 4.352799080312252 9.579930908977985 -1.1933225020766258 -0.19333567470312119 0.47186530847102404 -6.527919569169171 -8.225953917950392 -2.0353219155222178 -2.3857225151732564 10.28164640814066 5.473973989486694 10.760468805208802 5.414913202635944 4.949812777340412 -2.793600358068943 -2.7697660359553993
7.3963755941949785 3.7278273329138756 -1.8530871830880642 -1.3509443160146475 4.473937880247831 -2.4494836516678333 0.9506791979074478 10.32007054053247 -3.0828485414385796 -13.34718844667077 3.5138492677360773 5.332782909274101 -6.534335373668 -3.657119318842888 2.5850080545060337 -6.867774173617363 4.109311822801828 5.4278300777077675 -6.118987113237381 5.208045003935695 5.77987615019083 6.935015944065526 7.671002320945263 6.967449591495097 6.4643407091498375 4.476001347415149 1.587301328778267 5.877293659374118 -10.179627117700875 1.2828902527689934
17.780423413030803 4.800413876771927 3.9552480205893517 -3.6837721751071513 -2.241057578474283 -5.584196105599403 4.9718944914639 -3.696788078173995 -2.5389845184981823 -0.7456235811114311 -2.0098612564615905 5.083024428342469 -1.7292298572137952 -11.475218635052443 7.851128853857517 -7.818770833313465 -3.7045823642984033 0.317467100918293 1.1286447839811444 -7.706809928640723 -9.716921336948872 -1.6066009208734613 -2.6052997559309006 2.118101455271244 3.5094352029263973 3.2628196347504854 -5.72800552053377 2.466249331831932 9.412969020893797 -14.471213506534696
-2.251581694930792 -2.474673396907747 2.9609004743397236 5.194973986595869 -2.010684199631214 9.33878524415195 3.468026902526617 -5.236757896840572 8.504599638283253 5.062239222228527 10.832866022363305 -9.55826626997441 -4.955130327492952 8.012984871864319 -2.2181663382798433 -4.370922049507499 -0.8080910383723676 -2.888797402381897 -2.2002301546745002 -5.600141458213329 4.357453500764677 1.5333341658115387 0.4519855435937643 1.2059254990890622 -2.66535481531173 2.3168989934492856 -1.2966096634045243 -6.854995779693127 3.366021677851677 0.1928350254893303
0.6211259569972754 -5.108676042407751 2.7283084839582443 -8.30182939209044 12.143969796597958 -3.8801713176071644 5.05403202958405 1.892786629498005 3.985139697790146 0.34930646419525146 1.7470746077597141 -10.596086487174034 -11.322899118065834 -5.99100224301219 -1.3289213180541992 -1.5788648203015327 1.144470937550068 -0.9123173542320728 -2.449909022077918 0.5561502575874329 3.102075941860676 1.1641492620110512 3.81631017383188 8.020202098414302 -3.9589599519968033 7.2044159434735775 6.1446792664937675 -3.3145109824836254 -0.2426421195268631 -2.620498693548143
-2.521919574588537 -5.344261150807142 -0.09412982687354088 -1.5808588471263647 3.4839298594743013 -1.52527935244143 4.264325454831123 2.332325709052384 -0.2047898054588586 -6.426723292097449 -1.0964861437678337 -2.5878418162465096 -2.0049278885126114 -7.642171757295728 7.842192028590944 -2.1456049978733063 6.318748600780964 3.7525749802589417 -0.7513502486981452 0.7540725632570684 1.3353155741933733 -5.428879110142589 -11.592798974364996 1.6567084528505802 -4.338597547262907 -0.022910544648766518 -0.9280279204249382 1.2940121069550514 5.051578619517386 -5.001671120524406
1.2825899189338088 1.7142113484442234 1.6445751066785306 2.4278642684221268 -2.237295124679804 -6.690423196181655 1.1941142417490482 -5.884060111828148 -2.00209198333323 4.679958608932793 -6.087944993749261 5.186380473896861 -13.808826319873333 -5.532996788620949 13.959340975619853 -7.598868992179632 11.660589337348938 2.489959456026554 7.626504445448518 -3.8116289786994457 7.460766475647688 -2.186144083738327 3.8950230879709125 -9.1282729357481 6.525299869477749 -2.513176701962948 -0.8202231228351593 -6.133973239921033 -2.4460291545838118 3.590868798084557
-7.008785665035248 -1.0964866802096367 -6.029857791960239 4.144661288708448 -3.0364652909338474 0.8729077759198844 1.1063074544072151 3.702603355050087 -2.7443306457134895 -3.273012900725007 -5.145223333965987 7.291128830052912 -5.017445951700211 -4.411767752841115 -1.4763815510086715 -2.249218299984932 7.167953554540873 -3.7959066424518824 2.647866077721119 11.367417588829994 -2.71683232113719 -4.4156642984598875 -7.539113018661737 -1.8476784266531467 -2.7885376596823335 -1.5371974557638168 -6.369072523899376 2.260401628911495 -9.137626940384507 -0.6090813861228526
3.2617409080266953 -7.572531481018814 -2.1373735535889864 4.237734884023666 3.0076304730027914 6.7383373393677175 14.511491991579533 6.105322165414691 8.916730028577149 4.186614740639925 4.234816040843725 -3.8733467869460583 -4.746108390390873 -2.15804648026824 4.352770026773214 9.57986854761839 -1.1932798847556114 -0.1932154819369316 0.47185288090258837 -6.527879276429303 -8.22586677595973 -2.0352833215147257 -2.385705259628594 10.281575001776218 5.4739468693733215 10.760420808568597 5.414918835274875 4.9497969299554825 -2.7935649710707366 -2.769734743516892
7.3965106583200395 3.727722980082035 -1.8530793748795986 -1.3509653564542532 4.473881598562002 -2.449517372995615 0.9505917727947235 10.320110721513629 -3.082960467785597 -13.34724384918809 3.5137756261974573 5.3328675255179405 -6.534329323796555 -3.6571750193834305 2.584887450095266 -6.867896214127541 4.109326843172312 5.427866764366627 -6.119047164916992 5.2081327345222235 5.779963500797749 6.935056972317398 7.67097919434309 6.967451044358313 6.464383654296398 4.476133490912616 1.587375521659851 5.877380622550845 -10.17970695067197 1.282894991338253
17.78049134556204 4.80041329562664 3.9552766606211662 -3.6838339851237833 -2.2409612610936165 -5.5841591358184814 4.97189224883914 -3.6968867015093565 -2.5389694049954414 -0.7456227913498878 -2.0098238396458328 5.083276295685209 -1.7292531179264188 -11.47524992749095 7.851045832037926 -7.818711049854755 -3.7044996032491326 0.3174622729420662 1.1286283181980252 -7.706809988245368 -9.716881833970547 -1.6065918237145524 -2.6052883714437485 2.118035927414894 3.509369444102049 3.2628607023507357 -5.727918497752398 2.4662435799837112 9.412963462760672 -14.471246691420674
-2.2517527900636196 -2.474810919724405 2.9609556682407856 5.194981679320335 -2.0106957890093327 9.33880396746099 3.468080770224333 -5.236763767898083 8.504601366817951 5.062256969511509 10.8329790327698 -9.558245028369129 -4.955144245177507 8.012936353683472 -2.218217487446964 -4.370982028543949 -0.8080570637248456 -2.8888767659664154 -2.2002361970953643 -5.600073620676994 4.3574989493063185 1.5333012491464615 0.4520121943205595 1.2059965478256345 -2.665286016650498 2.3169015601743013 -1.2965628942474723 -6.854871869087219 3.3660116121172905 0.19271066039800644
0.6194059159606695 -5.108630236238241 2.7282410115003586 -8.301715636625886 12.143926702439785 -3.8802082166075706 5.054077457636595 1.8927518650889397 3.9850783348083496 0.34924158453941345 1.747021410614252 -10.596115229651332 -11.322829335927963 -5.991109404712915 -1.328905627131462 -1.5787930861115456 1.1444362178444862 -0.9122869409620762 -2.4499069061130285 0.5562618970870972 3.1020162478089333 1.1642362102866173 3.816331817768514 8.020206091925502 -3.958950415253639 7.204499900341034 6.14461356215179 -3.3145663551986217 -0.24261626601219177 -2.6206017713993788
-2.521815652027726 -5.344166304916143 -0.09409743174910545 -1.5808314885944128 3.4839686024934053 -1.5251977238804102 4.2643102034926414 2.3323747934773564 -0.2046992597170174 -6.42674813605845 -1.0964132193475962 -2.5878628864884377 -2.0049505084753036 -7.642174856737256 7.842204605170991 -2.145614892244339 6.3187427297234535 3.7525616884231567 -0.7513906308449805 0.7540934248827398 1.3353994379285723 -5.42882633022964 -11.592765357345343 1.6567949391901493 -4.338575284928083 -0.02301105298101902 -0.9280385300517082 1.2940324023365974 5.05166179779917 -5.001663401722908
1.2825899189338088 1.7142113484442234 1.6445751066785306 2.4278642684221268 -2.237295124679804 -6.690423196181655 1.1941142417490482 -5.884060111828148 -2.00209198333323 4.679958608932793 -6.087944993749261 5.186380473896861 -13.808826319873333 -5.532996788620949 13.959340975619853 -7.598868992179632 11.660589337348938 2.489959456026554 7.626504445448518 -3.8116289786994457 7.460766475647688 -2.186144083738327 3.8950230879709125 -9.1282729357481 6.525299869477749 -2.513176701962948 -0.8202231228351593 -6.133973239921033 -2.4460291545838118 3.590868798084557
-7.008785665035248 -1.0964866802096367 -6.029857791960239 4.144661288708448 -3.0364652909338474 0.8729077759198844 1.1063074544072151 3.702603355050087 -2.7443306457134895 -3.273012900725007 -5.145223333965987 7.291128830052912 -5.017445951700211 -4.411767752841115 -1.4763815510086715 -2.249218299984932 7.167953554540873 -3.7959066424518824 2.647866077721119 11.367417588829994 -2.71683232113719 -4.4156642984598875 -7.539113018661737 -1.8476784266531467 -2.7885376596823335 -1.5371974557638168 -6.369072523899376 2.260401628911495 -9.137626940384507 -0.6090813861228526
3.2617409080266953 -7.572531481018814 -2.1373735535889864 4.237734884023666 3.0076304730027914 6.7383373393677175 14.511491991579533 6.105322165414691 8.916730028577149 4.186614740639925 4.234816040843725 -3.8733467869460583 -4.746108390390873 -2.15804648026824 4.352770026773214 9.57986854761839 -1.1932798847556114 -0.1932154819369316 0.47185288090258837 -6.527879276429303 -8.22586677595973 -2.0352833215147257 -2.385705259628594 10.281575001776218 5.4739468693733215 10.760420808568597 5.414918835274875 4.9497969299554825 -2.7935649710707366 -2.769734743516892
7.3965106583200395 3.727722980082035 -1.8530793748795986 -1.3509653564542532 4.473881598562002 -2.449517372995615 0.9505917727947235 10.320110721513629 -3.082960467785597 -13.34724384918809 3.5137756261974573 5.3328675255179405 -6.534329323796555 -3.6571750193834305 2.584887450095266 -6.867896214127541 4.109326843172312 5.427866764366627 -6.119047164916992 5.2081327345222235 5.779963500797749 6.935056972317398 7.67097919434309 6.967451044358313 6.464383654296398 4.476133490912616 1.587375521659851 5.877380622550845 -10.17970695067197 1.282894991338253
17.78049134556204 4.80041329562664 3.9552766606211662 -3.6838339851237833 -2.2409612610936165 -5.5841591358184814 4.97189224883914 -3.6968867015093565 -2.5389694049954414 -0.7456227913498878 -2.0098238396458328 5.083276295685209 -1.7292531179264188 -11.47524992749095 7.851045832037926 -7.818711049854755 -3.7044996032491326 0.3174622729420662 1.1286283181980252 -7.706809988245368 -9.716881833970547 -1.6065918237145524 -2.6052883714437485 2.118035927414894 3.509369444102049 3.2628607023507357 -5.727918497752398 2.4662435799837112 9.412963462760672 -14.471246691420674
-2.2517527900636196 -2.474810919724405 2.9609556682407856 5.194981679320335 -2.0106957890093327 9.33880396746099 3.468080770224333 -5.236763767898083 8.504601366817951 5.062256969511509 10.8329790327698 -9.558245028369129 -4.955144245177507 8.012936353683472 -2.218217487446964 -4.370982028543949 -0.8080570637248456 -2.8888767659664154 -2.2002361970953643 -5.600073620676994 4.3574989493063185 1.5333012491464615 0.4520121943205595 1.2059965478256345 -2.665286016650498 2.3169015601743013 -1.2965628942474723 -6.854871869087219 3.3660116121172905 0.19271066039800644
0.6194059159606695 -5.108630236238241 2.7282410115003586 -8.301715636625886 12.143926702439785 -3.8802082166075706 5.054077457636595 1.8927518650889397 3.9850783348083496 0.34924158453941345 1.747021410614252 -10.596115229651332 -11.322829335927963 -5.991109404712915 -1.328905627131462 -1.5787930861115456 1.1444362178444862 -0.9122869409620762 -2.4499069061130285 0.5562618970870972 3.1020162478089333 1.1642362102866173 3.816331817768514 8.020206091925502 -3.958950415253639 7.204499900341034 6.14461356215179 -3.3145663551986217 -0.24261626601219177 -2.6206017713993788
-2.521815652027726 -5.344166304916143 -0.09409743174910545 -1.5808314885944128 3.4839686024934053 -1.5251977238804102 4.2643102034926414 2.3323747934773564 -0.2046992597170174 -6.42674813605845 -1.0964132193475962 -2.5878628864884377 -2.0049505084753036 -7.642174856737256 7.842204605170991 -2.145614892244339 6.3187427297234535 3.7525616884231567 -0.7513906308449805 0.7540934248827398 1.3353994379285723 -5.42882633022964 -11.592765357345343 1.6567949391901493 -4.338575284928083 -0.02301105298101902 -0.9280385300517082 1.2940324023365974 5.05166179779917 -5.001663401722908
1.2827101340517402 1.7142110206186771 1.6445013044867665 2.4278783947229385 -2.2373254038393497 -6.6904000248759985 1.194197479635477 -5.884107254445553 -2.0020514521747828 4.679996219463646 -6.087865920737386 5.1863705683499575 -13.808890633285046 -5.533053368330002 13.959288922138512 -7.598812445998192 11.660686671733856 2.490056596696377 7.626528734341264 -3.811727236956358 7.460692506283522 -2.1860927045345306 3.8950363574549556 -9.128263749182224 6.5253405794501305 -2.513216309249401 -0.8202404975891113 -6.133972047828138 -2.446051297709346 3.5908606369048357
-7.008758366107941 -1.096367970108986 -6.029863398522139 4.144715543836355 -3.0364352203905582 0.8728579017333686 1.10630751401186 3.7026163041591644 -2.744351023051422 -3.2730849031358957 -5.145280852448195 7.29109972063452 -5.017479300498962 -4.411871762946248 -1.4764075907878578 -2.249171230942011 7.167951468378305 -3.795882711187005 2.64790178835392 11.367473512887955 -2.7168432539328933 -4.4156685546040535 -7.539073679596186 -1.8476754389703274 -2.7885060142725706 -1.5371548160910606 -6.369138625450432 2.260425738990307 -9.137647861614823 -0.6091897920705378
3.2616501227021217 -7.572560450927995 -2.137381214648485 4.237687259912491 3.007719023153186 6.738320508506149 14.511478342115879 6.105267038568854 8.916746077127755 4.186591248959303 4.234788950532675 -3.8733263835310936 -4.74603096395731 -2.1579680368304253 4.352724116295576 9.579791374504566 -1.193343885242939 -0.19324972480535507 0.4719353439286351 -6.52792380109895 -8.225894015282393 -2.035332018509507 -2.385689196176827 10.281669802963734 5.473966181278229 10.760359117761254 5.4149150205776095 4.949708268046379 -2.793541838414967 -2.7696399125270545
7.396386919077486 3.7278621792793274 -1.8531023226678371 -1.3509825970977545 4.473968308418989 -2.449543122202158 0.9506734237074852 10.320087200030684 -3.082922402769327 -13.347260806709528 3.513827020302415 5.332886666059494 -6.534307523397729 -3.6571546494960785 2.5849789176136255 -6.867809697985649 4.109411034733057 5.4278585985302925 -6.119041979312897 5.208087606355548 5.779952473938465 6.935064734192565 7.671038441359997 6.967508942820132 6.464414410293102 4.476047421805561 1.5873573273420334 5.877412213012576 -10.179711525328457 1.2829289957880974
17.78043840546161 4.800372697412968 3.9552791342139244 -3.6838179514743388 -2.2409758642315865 -5.584231562912464 4.97189075499773 -3.6967977937310934 -2.539008915424347 -0.7457215562462807 -2.009825329761952 5.083195667830296 -1.729233150370419 -11.475247602909803 7.851031810045242 -7.818754576146603 -3.704498686827719 0.3175269737839699 1.1287203626707196 -7.706780007109046 -9.717024572193623 -1.6065756485040765 -2.6054201275110245 2.1180736050009727 3.509383510798216 3.262807058170438 -5.727946154307574 2.466324582695961 9.412995917489752 -14.471210731193423
-2.251668404787779 -2.4747328525409102 2.960899006575346 5.195006284862757 -2.010735834017396 9.338802330195904 3.4680698923766613 -5.236782468855381 8.504614658653736 5.062228582799435 10.832953045144677 -9.5582952266559 -4.955124843865633 8.012945383787155 -2.2182271564379334 -4.3709579557180405 -0.8080637990497053 -2.888872615993023 -2.2003297465853393 -5.600063610821962 4.357482379215071 1.5332800596952438 0.4519739132374525 1.2060243235900998 -2.6653207736089826 2.316892209695652 -1.2965897927060723 -6.854870826005936 3.366068832576275 0.19274791330099106
0.6194353606551886 -5.108677823096514 2.728294774889946 -8.301828796043992 12.143983162939548 -3.880214650183916 5.054036613553762 1.8928040862083435 3.9850285947322845 0.34918466210365295 1.7471409179270267 -10.596089705824852 -11.322866678237915 -5.991116922348738 -1.3287580460309982 -1.5788471475243568 1.1443649157881737 -0.9123440533876419 -2.4498438145965338 0.5561894699931145 3.1020048037171364 1.164188764989376 3.816336221061647 8.020119426771998 -3.9589301496744156 7.204489681869745 6.144680304452777 -3.3145243041217327 -0.2426595389842987 -2.6205402398481965
-2.521937157958746 -5.344147067517042 -0.09400114044547081 -1.580823978409171 3.483879493549466 -1.5251286420971155 4.264309853315353 2.332360845990479 -0.20481301099061966 -6.426683446392417 -1.0965168438851833 -2.5878884568810463 -2.004947692155838 -7.642154710367322 7.842274759837892 -2.1455700770020485 6.318683005869389 3.752646028995514 -0.7513163932599127 0.7540501221083105 1.3353847751859576 -5.428803352639079 -11.592771913856268 1.6567242480814457 -4.338624220341444 -0.02293138299137354 -0.9280207082629204 1.2940653935074806 5.05171958450228 -5.0016941875219345
