0.18600795418024063 -1.9644016921520233 6.505134407430887 -1.6385113596916199 -0.16324040666222572 -6.9423085153102875 0.9540235586464405 -5.452701307833195 1.730742558836937 5.907079432159662 0.9478648006916046 -1.775006141513586 2.11393840610981
-4.791604075580835 -1.0765615189448 -3.4155109524726868 -5.114842064678669 2.1319966912269592 -0.6193529739975929 -2.6645602956414223 -0.9975120667368174 -2.2105671912431717 -3.0152557231485844 -1.8069641627371311 -0.5690633580088615 0.8270415961742401
2.922423705458641 -2.959538470953703 3.8264976888895035 0.8454845556989312 -2.844356194138527 -2.6033200062811375 1.136161919683218 5.04826014302671 -1.9751984477043152 -0.5721681679133326 -4.257233962416649 7.9977446757256985 -3.9570996463298798
4.57945404201746 -0.01389332115650177 -6.42112722992897 -2.7736342400312424 3.1357505321502686 -8.939954243600368 4.050897605717182 -0.6328882649540901 -1.8182575404644012 4.639355823397636 4.383044555783272 0.263027798384428 2.165474098175764
-5.887619778513908 0.20479398546740413 1.8961011804640293 0.9090257287025452 -0.2609308082610369 2.2028449177742004 -0.8668514490127563 0.0637076236307621 -5.0373611859977245 0.08764392137527466 -2.5477370619773865 -6.767829697579145 0.28805165737867355
-4.63877746462822 3.294148027896881 -2.888213887810707 -4.868307787925005 -1.1744674853980541 4.4722433760762215 2.5646553114056587 2.8061926756054163 -3.256390817463398 -0.1516808122396469 1.6694708373397589 4.673749163746834 7.176680188858882
3.60726997256279 -3.025772452354431 -1.4979613274335861 -4.681892076507211 -3.0750559270381927 -2.8540258993161842 -1.1351498663425446 -2.0809489004313946 -1.6100164726376534 2.529396737460047 0.26614966755732894 -2.8323366194963455 0.2730920948088169
-2.523169983178377 -4.819028882309794 -3.42984576523304 -0.6763677224516869 0.8062501102685928 -3.7510475926101208 -5.916580426390283 -0.9327274411916733 2.1239848658442497 0.20237516332417727 5.130673378705978 0.9019893929362297 2.203694634139538
0.18600795418024063 -1.9644016921520233 6.505134407430887 -1.6385113596916199 -0.16324040666222572 -6.9423085153102875 0.9540235586464405 -5.452701307833195 1.730742558836937 5.907079432159662 0.9478648006916046 -1.775006141513586 2.11393840610981
-4.791604075580835 -1.0765615189448 -3.4155109524726868 -5.114842064678669 2.1319966912269592 -0.6193529739975929 -2.6645602956414223 -0.9975120667368174 -2.2105671912431717 -3.0152557231485844 -1.8069641627371311 -0.5690633580088615 0.8270415961742401
2.922423705458641 -2.959538470953703 3.8264976888895035 0.8454845556989312 -2.844356194138527 -2.6033200062811375 1.136161919683218 5.04826014302671 -1.9751984477043152 -0.5721681679133326 -4.257233962416649 7.9977446757256985 -3.9570996463298798
4.57945404201746 -0.01389332115650177 -6.42112722992897 -2.7736342400312424 3.1357505321502686 -8.939954243600368 4.050897605717182 -0.6328882649540901 -1.8182575404644012 4.639355823397636 4.383044555783272 0.263027798384428 2.165474098175764
-5.887619778513908 0.20479398546740413 1.8961011804640293 0.9090257287025452 -0.2609308082610369 2.2028449177742004 -0.8668514490127563 0.0637076236307621 -5.0373611859977245 0.08764392137527466 -2.5477370619773865 -6.767829697579145 0.28805165737867355
-4.63877746462822 3.294148027896881 -2.888213887810707 -4.868307787925005 -1.1744674853980541 4.4722433760762215 2.5646553114056587 2.8061926756054163 -3.256390817463398 -0.1516808122396469 1.6694708373397589 4.673749163746834 7.176680188858882
3.60726997256279 -3.025772452354431 -1.4979613274335861 -4.681892076507211 -3.0750559270381927 -2.8540258993161842 -1.1351498663425446 -2.0809489004313946 -1.6100164726376534 2.529396737460047 0.26614966755732894 -2.8323366194963455 0.2730920948088169
-2.523169983178377 -4.819028882309794 -3.42984576523304 -0.6763677224516869 0.8062501102685928 -3.7510475926101208 -5.916580426390283 -0.9327274411916733 2.1239848658442497 0.20237516332417727 5.130673378705978 0.9019893929362297 2.203694634139538
